<?xml version="1.0"?>
<opencv_storage>
<haarcascade_frontalface_cbcl1 type_id="opencv-haar-classifier">
  <size>
    19 19</size>
  <stages>
    <_>
      <!-- stage 0 -->
      <trees>
        <_>
          <!-- tree 0 -->
          <_>
            <!-- root node -->
            <feature>
              <rects>
                <_>
                  0 2 19 15 -1.</_>
                <_>
                  0 7 19 5 3.</_></rects>
              <tilted>0</tilted></feature>
            <threshold>0.2897425889968872</threshold>
            <left_val>-0.9063848853111267</left_val>
            <right_node>1</right_node></_>
          <_>
            <!-- node 1 -->
            <feature>
              <rects>
                <_>
                  9 0 4 8 -1.</_>
                <_>
                  7 2 4 4 2.</_></rects>
              <tilted>1</tilted></feature>
            <threshold>-0.0212941095232964</threshold>
            <left_val>0.9466363191604614</left_val>
            <right_val>-0.7020866870880127</right_val></_></_>
        <_>
          <!-- tree 1 -->
          <_>
            <!-- root node -->
            <feature>
              <rects>
                <_>
                  11 0 6 4 -1.</_>
                <_>
                  13 2 2 4 3.</_></rects>
              <tilted>1</tilted></feature>
            <threshold>-0.0240068100392818</threshold>
            <left_node>1</left_node>
            <right_val>-0.0227506496012211</right_val></_>
          <_>
            <!-- node 1 -->
            <feature>
              <rects>
                <_>
                  10 7 1 4 -1.</_>
                <_>
                  9 8 1 2 2.</_></rects>
              <tilted>1</tilted></feature>
            <threshold>-8.8367832358926535e-04</threshold>
            <left_val>0.3481482863426208</left_val>
            <right_val>-0.2771438062191010</right_val></_></_>
        <_>
          <!-- tree 2 -->
          <_>
            <!-- root node -->
            <feature>
              <rects>
                <_>
                  8 0 4 6 -1.</_>
                <_>
                  6 2 4 2 3.</_></rects>
              <tilted>1</tilted></feature>
            <threshold>-0.0503426007926464</threshold>
            <left_val>0.8065196871757507</left_val>
            <right_node>1</right_node></_>
          <_>
            <!-- node 1 -->
            <feature>
              <rects>
                <_>
                  2 0 15 3 -1.</_>
                <_>
                  7 1 5 1 9.</_></rects>
              <tilted>0</tilted></feature>
            <threshold>0.1011997014284134</threshold>
            <left_val>-0.9122493267059326</left_val>
            <right_val>0.3446207940578461</right_val></_></_>
        <_>
          <!-- tree 3 -->
          <_>
            <!-- root node -->
            <feature>
              <rects>
                <_>
                  11 6 1 6 -1.</_>
                <_>
                  9 8 1 2 3.</_></rects>
              <tilted>1</tilted></feature>
            <threshold>-5.6308228522539139e-03</threshold>
            <left_val>0.1898635029792786</left_val>
            <right_node>1</right_node></_>
          <_>
            <!-- node 1 -->
            <feature>
              <rects>
                <_>
                  11 4 1 6 -1.</_>
                <_>
                  9 6 1 2 3.</_></rects>
              <tilted>1</tilted></feature>
            <threshold>-3.6132589448243380e-03</threshold>
            <left_val>0.3015784919261932</left_val>
            <right_val>-0.5078806877136230</right_val></_></_>
        <_>
          <!-- tree 4 -->
          <_>
            <!-- root node -->
            <feature>
              <rects>
                <_>
                  8 6 6 1 -1.</_>
                <_>
                  10 8 2 1 3.</_></rects>
              <tilted>1</tilted></feature>
            <threshold>0.0125665701925755</threshold>
            <left_val>-0.7530555725097656</left_val>
            <right_node>1</right_node></_>
          <_>
            <!-- node 1 -->
            <feature>
              <rects>
                <_>
                  8 4 6 1 -1.</_>
                <_>
                  10 6 2 1 3.</_></rects>
              <tilted>1</tilted></feature>
            <threshold>2.3875739425420761e-03</threshold>
            <left_val>-0.8235456943511963</left_val>
            <right_val>0.7602357268333435</right_val></_></_>
        <_>
          <!-- tree 5 -->
          <_>
            <!-- root node -->
            <feature>
              <rects>
                <_>
                  9 6 5 12 -1.</_>
                <_>
                  9 12 5 6 2.</_></rects>
              <tilted>0</tilted></feature>
            <threshold>-2.5476319715380669e-03</threshold>
            <left_node>1</left_node>
            <right_val>-0.5094575881958008</right_val></_>
          <_>
            <!-- node 1 -->
            <feature>
              <rects>
                <_>
                  9 7 5 4 -1.</_>
                <_>
                  9 8 5 2 2.</_></rects>
              <tilted>0</tilted></feature>
            <threshold>1.0116769699379802e-03</threshold>
            <left_val>-0.5186439752578735</left_val>
            <right_val>0.3163382112979889</right_val></_></_></trees>
      <stage_threshold>-2.7859830856323242</stage_threshold>
      <parent>-1</parent>
      <next>-1</next></_>
    <_>
      <!-- stage 1 -->
      <trees>
        <_>
          <!-- tree 0 -->
          <_>
            <!-- root node -->
            <feature>
              <rects>
                <_>
                  0 2 19 15 -1.</_>
                <_>
                  0 7 19 5 3.</_></rects>
              <tilted>0</tilted></feature>
            <threshold>0.2814700007438660</threshold>
            <left_val>-0.9124131202697754</left_val>
            <right_node>1</right_node></_>
          <_>
            <!-- node 1 -->
            <feature>
              <rects>
                <_>
                  5 1 6 5 -1.</_>
                <_>
                  8 1 3 5 2.</_></rects>
              <tilted>0</tilted></feature>
            <threshold>0.0109041295945644</threshold>
            <left_val>-0.7008836865425110</left_val>
            <right_val>0.9400058984756470</right_val></_></_>
        <_>
          <!-- tree 1 -->
          <_>
            <!-- root node -->
            <feature>
              <rects>
                <_>
                  8 1 4 10 -1.</_>
                <_>
                  8 1 2 10 2.</_></rects>
              <tilted>0</tilted></feature>
            <threshold>-0.0203220099210739</threshold>
            <left_val>0.4675228893756866</left_val>
            <right_node>1</right_node></_>
          <_>
            <!-- node 1 -->
            <feature>
              <rects>
                <_>
                  12 2 4 15 -1.</_>
                <_>
                  12 7 4 5 3.</_></rects>
              <tilted>0</tilted></feature>
            <threshold>0.0550806410610676</threshold>
            <left_val>-0.5866209864616394</left_val>
            <right_val>0.5466197729110718</right_val></_></_>
        <_>
          <!-- tree 2 -->
          <_>
            <!-- root node -->
            <feature>
              <rects>
                <_>
                  5 0 9 11 -1.</_>
                <_>
                  8 0 3 11 3.</_></rects>
              <tilted>0</tilted></feature>
            <threshold>0.0661610066890717</threshold>
            <left_val>-0.7098636031150818</left_val>
            <right_node>1</right_node></_>
          <_>
            <!-- node 1 -->
            <feature>
              <rects>
                <_>
                  4 4 2 12 -1.</_>
                <_>
                  4 7 2 6 2.</_></rects>
              <tilted>0</tilted></feature>
            <threshold>7.2376970201730728e-03</threshold>
            <left_val>-0.8612713813781738</left_val>
            <right_val>0.8343788981437683</right_val></_></_>
        <_>
          <!-- tree 3 -->
          <_>
            <!-- root node -->
            <feature>
              <rects>
                <_>
                  8 2 8 16 -1.</_>
                <_>
                  10 2 4 16 2.</_></rects>
              <tilted>0</tilted></feature>
            <threshold>-0.0572704598307610</threshold>
            <left_node>1</left_node>
            <right_val>-0.1323353052139282</right_val></_>
          <_>
            <!-- node 1 -->
            <feature>
              <rects>
                <_>
                  16 9 2 6 -1.</_>
                <_>
                  16 9 1 6 2.</_></rects>
              <tilted>1</tilted></feature>
            <threshold>3.9673261344432831e-03</threshold>
            <left_val>0.2709386050701141</left_val>
            <right_val>-0.4730531871318817</right_val></_></_>
        <_>
          <!-- tree 4 -->
          <_>
            <!-- root node -->
            <feature>
              <rects>
                <_>
                  8 4 2 7 -1.</_>
                <_>
                  9 4 1 7 2.</_></rects>
              <tilted>0</tilted></feature>
            <threshold>4.7594560310244560e-03</threshold>
            <left_val>-0.7281224131584167</left_val>
            <right_node>1</right_node></_>
          <_>
            <!-- node 1 -->
            <feature>
              <rects>
                <_>
                  8 3 2 6 -1.</_>
                <_>
                  8 3 2 3 2.</_></rects>
              <tilted>1</tilted></feature>
            <threshold>-0.0166120007634163</threshold>
            <left_val>0.7553805112838745</left_val>
            <right_val>-0.7834874987602234</right_val></_></_></trees>
      <stage_threshold>-1.9914799928665161</stage_threshold>
      <parent>0</parent>
      <next>-1</next></_>
    <_>
      <!-- stage 2 -->
      <trees>
        <_>
          <!-- tree 0 -->
          <_>
            <!-- root node -->
            <feature>
              <rects>
                <_>
                  5 1 6 7 -1.</_>
                <_>
                  8 1 3 7 2.</_></rects>
              <tilted>0</tilted></feature>
            <threshold>0.0399613603949547</threshold>
            <left_val>-0.7994585037231445</left_val>
            <right_node>1</right_node></_>
          <_>
            <!-- node 1 -->
            <feature>
              <rects>
                <_>
                  0 3 19 8 -1.</_>
                <_>
                  0 7 19 4 2.</_></rects>
              <tilted>0</tilted></feature>
            <threshold>0.1269862949848175</threshold>
            <left_val>-0.8551077246665955</left_val>
            <right_val>0.9066073894500732</right_val></_></_>
        <_>
          <!-- tree 1 -->
          <_>
            <!-- root node -->
            <feature>
              <rects>
                <_>
                  14 7 4 6 -1.</_>
                <_>
                  14 7 4 3 2.</_></rects>
              <tilted>1</tilted></feature>
            <threshold>1.8059200374409556e-03</threshold>
            <left_val>-0.6853448748588562</left_val>
            <right_node>1</right_node></_>
          <_>
            <!-- node 1 -->
            <feature>
              <rects>
                <_>
                  10 7 1 4 -1.</_>
                <_>
                  9 8 1 2 2.</_></rects>
              <tilted>1</tilted></feature>
            <threshold>-2.6521209292695858e-05</threshold>
            <left_val>0.3207044899463654</left_val>
            <right_val>-0.5572059750556946</right_val></_></_>
        <_>
          <!-- tree 2 -->
          <_>
            <!-- root node -->
            <feature>
              <rects>
                <_>
                  8 0 4 6 -1.</_>
                <_>
                  6 2 4 2 3.</_></rects>
              <tilted>1</tilted></feature>
            <threshold>-0.0333655811846256</threshold>
            <left_node>1</left_node>
            <right_val>-0.8130049705505371</right_val></_>
          <_>
            <!-- node 1 -->
            <feature>
              <rects>
                <_>
                  9 7 4 1 -1.</_>
                <_>
                  10 8 2 1 2.</_></rects>
              <tilted>1</tilted></feature>
            <threshold>2.5976800825446844e-03</threshold>
            <left_val>-0.4490374028682709</left_val>
            <right_val>0.8013830780982971</right_val></_></_>
        <_>
          <!-- tree 3 -->
          <_>
            <!-- root node -->
            <feature>
              <rects>
                <_>
                  5 1 9 17 -1.</_>
                <_>
                  8 1 3 17 3.</_></rects>
              <tilted>0</tilted></feature>
            <threshold>0.0550433099269867</threshold>
            <left_val>-0.6493272185325623</left_val>
            <right_node>1</right_node></_>
          <_>
            <!-- node 1 -->
            <feature>
              <rects>
                <_>
                  14 7 4 6 -1.</_>
                <_>
                  14 7 4 3 2.</_></rects>
              <tilted>1</tilted></feature>
            <threshold>0.0344477407634258</threshold>
            <left_val>-0.2047225981950760</left_val>
            <right_val>0.3017931878566742</right_val></_></_>
        <_>
          <!-- tree 4 -->
          <_>
            <!-- root node -->
            <feature>
              <rects>
                <_>
                  2 8 6 4 -1.</_>
                <_>
                  5 8 3 4 2.</_></rects>
              <tilted>0</tilted></feature>
            <threshold>-1.8813689530361444e-04</threshold>
            <left_node>1</left_node>
            <right_val>-0.8111445903778076</right_val></_>
          <_>
            <!-- node 1 -->
            <feature>
              <rects>
                <_>
                  7 7 2 4 -1.</_>
                <_>
                  7 8 2 2 2.</_></rects>
              <tilted>0</tilted></feature>
            <threshold>-2.9255549889057875e-03</threshold>
            <left_val>-0.9386016130447388</left_val>
            <right_val>0.6814774870872498</right_val></_></_></trees>
      <stage_threshold>-1.9016900062561035</stage_threshold>
      <parent>1</parent>
      <next>-1</next></_>
    <_>
      <!-- stage 3 -->
      <trees>
        <_>
          <!-- tree 0 -->
          <_>
            <!-- root node -->
            <feature>
              <rects>
                <_>
                  0 3 19 12 -1.</_>
                <_>
                  0 7 19 4 3.</_></rects>
              <tilted>0</tilted></feature>
            <threshold>0.3338842093944550</threshold>
            <left_val>-0.9722548723220825</left_val>
            <right_node>1</right_node></_>
          <_>
            <!-- node 1 -->
            <feature>
              <rects>
                <_>
                  2 1 15 7 -1.</_>
                <_>
                  7 1 5 7 3.</_></rects>
              <tilted>0</tilted></feature>
            <threshold>0.0613110102713108</threshold>
            <left_val>-0.8848657011985779</left_val>
            <right_val>0.9289749264717102</right_val></_></_>
        <_>
          <!-- tree 1 -->
          <_>
            <!-- root node -->
            <feature>
              <rects>
                <_>
                  0 3 19 12 -1.</_>
                <_>
                  0 7 19 4 3.</_></rects>
              <tilted>0</tilted></feature>
            <threshold>0.3053584992885590</threshold>
            <left_val>-0.9971147775650024</left_val>
            <right_node>1</right_node></_>
          <_>
            <!-- node 1 -->
            <feature>
              <rects>
                <_>
                  9 2 2 7 -1.</_>
                <_>
                  9 2 1 7 2.</_></rects>
              <tilted>0</tilted></feature>
            <threshold>-8.8812637841328979e-05</threshold>
            <left_val>0.3151907920837402</left_val>
            <right_val>-0.7127764821052551</right_val></_></_></trees>
      <stage_threshold>-1.6850310564041138</stage_threshold>
      <parent>2</parent>
      <next>4</next></_>
    <_>
      <!-- stage 4 -->
      <trees>
        <_>
          <!-- tree 0 -->
          <_>
            <!-- root node -->
            <feature>
              <rects>
                <_>
                  0 3 19 12 -1.</_>
                <_>
                  0 7 19 4 3.</_></rects>
              <tilted>0</tilted></feature>
            <threshold>0.5606029033660889</threshold>
            <left_val>-0.9987211227416992</left_val>
            <right_node>1</right_node></_>
          <_>
            <!-- node 1 -->
            <feature>
              <rects>
                <_>
                  5 1 6 9 -1.</_>
                <_>
                  8 1 3 9 2.</_></rects>
              <tilted>0</tilted></feature>
            <threshold>0.0325970202684402</threshold>
            <left_val>-0.9979323148727417</left_val>
            <right_val>0.9907734990119934</right_val></_></_></trees>
      <stage_threshold>0.9907734990119934</stage_threshold>
      <parent>2</parent>
      <next>5</next></_>
    <_>
      <!-- stage 5 -->
      <trees>
        <_>
          <!-- tree 0 -->
          <_>
            <!-- root node -->
            <feature>
              <rects>
                <_>
                  2 1 15 4 -1.</_>
                <_>
                  7 1 5 4 3.</_></rects>
              <tilted>0</tilted></feature>
            <threshold>0.0401140488684177</threshold>
            <left_val>-0.7012519836425781</left_val>
            <right_node>1</right_node></_>
          <_>
            <!-- node 1 -->
            <feature>
              <rects>
                <_>
                  8 6 1 2 -1.</_>
                <_>
                  8 6 1 1 2.</_></rects>
              <tilted>1</tilted></feature>
            <threshold>-6.5269618062302470e-05</threshold>
            <left_val>0.7473741769790649</left_val>
            <right_val>-0.8660712242126465</right_val></_></_>
        <_>
          <!-- tree 1 -->
          <_>
            <!-- root node -->
            <feature>
              <rects>
                <_>
                  11 9 6 8 -1.</_>
                <_>
                  11 9 3 8 2.</_></rects>
              <tilted>0</tilted></feature>
            <threshold>-9.7734788432717323e-03</threshold>
            <left_node>1</left_node>
            <right_val>-0.4883908927440643</right_val></_>
          <_>
            <!-- node 1 -->
            <feature>
              <rects>
                <_>
                  14 11 2 4 -1.</_>
                <_>
                  14 11 1 4 2.</_></rects>
              <tilted>1</tilted></feature>
            <threshold>-3.3708519185893238e-04</threshold>
            <left_val>0.2473694980144501</left_val>
            <right_val>-0.0669828578829765</right_val></_></_>
        <_>
          <!-- tree 2 -->
          <_>
            <!-- root node -->
            <feature>
              <rects>
                <_>
                  3 9 4 9 -1.</_>
                <_>
                  5 9 2 9 2.</_></rects>
              <tilted>0</tilted></feature>
            <threshold>-0.0112930303439498</threshold>
            <left_node>1</left_node>
            <right_val>-0.6165350079536438</right_val></_>
          <_>
            <!-- node 1 -->
            <feature>
              <rects>
                <_>
                  6 8 3 6 -1.</_>
                <_>
                  7 8 1 6 3.</_></rects>
              <tilted>0</tilted></feature>
            <threshold>-5.3310468501877040e-05</threshold>
            <left_val>0.7576025128364563</left_val>
            <right_val>-0.6451572775840759</right_val></_></_></trees>
      <stage_threshold>-1.5782109498977661</stage_threshold>
      <parent>2</parent>
      <next>-1</next></_>
    <_>
      <!-- stage 6 -->
      <trees>
        <_>
          <!-- tree 0 -->
          <_>
            <!-- root node -->
            <feature>
              <rects>
                <_>
                  2 1 15 7 -1.</_>
                <_>
                  7 1 5 7 3.</_></rects>
              <tilted>0</tilted></feature>
            <threshold>0.0778124779462814</threshold>
            <left_node>1</left_node>
            <right_val>0.8793399930000305</right_val></_>
          <_>
            <!-- node 1 -->
            <feature>
              <rects>
                <_>
                  7 2 4 9 -1.</_>
                <_>
                  9 2 2 9 2.</_></rects>
              <tilted>0</tilted></feature>
            <threshold>0.0406261086463928</threshold>
            <left_val>-0.9235103726387024</left_val>
            <right_val>0.3170152008533478</right_val></_></_>
        <_>
          <!-- tree 1 -->
          <_>
            <!-- root node -->
            <feature>
              <rects>
                <_>
                  9 3 2 7 -1.</_>
                <_>
                  9 3 1 7 2.</_></rects>
              <tilted>0</tilted></feature>
            <threshold>-2.7015269733965397e-04</threshold>
            <left_val>0.4052954018115997</left_val>
            <right_node>1</right_node></_>
          <_>
            <!-- node 1 -->
            <feature>
              <rects>
                <_>
                  15 8 3 6 -1.</_>
                <_>
                  15 8 3 3 2.</_></rects>
              <tilted>1</tilted></feature>
            <threshold>4.5586759224534035e-03</threshold>
            <left_val>-0.9589821100234985</left_val>
            <right_val>0.3448952138423920</right_val></_></_>
        <_>
          <!-- tree 2 -->
          <_>
            <!-- root node -->
            <feature>
              <rects>
                <_>
                  8 3 2 5 -1.</_>
                <_>
                  9 3 1 5 2.</_></rects>
              <tilted>0</tilted></feature>
            <threshold>4.2720790952444077e-03</threshold>
            <left_val>-0.9805477261543274</left_val>
            <right_node>1</right_node></_>
          <_>
            <!-- node 1 -->
            <feature>
              <rects>
                <_>
                  3 9 4 2 -1.</_>
                <_>
                  5 9 2 2 2.</_></rects>
              <tilted>0</tilted></feature>
            <threshold>-2.8354750611470081e-05</threshold>
            <left_val>0.7074878215789795</left_val>
            <right_val>-0.9853243827819824</right_val></_></_>
        <_>
          <!-- tree 3 -->
          <_>
            <!-- root node -->
            <feature>
              <rects>
                <_>
                  5 1 9 10 -1.</_>
                <_>
                  8 1 3 10 3.</_></rects>
              <tilted>0</tilted></feature>
            <threshold>0.0873955786228180</threshold>
            <left_node>1</left_node>
            <right_val>0.6137254834175110</right_val></_>
          <_>
            <!-- node 1 -->
            <feature>
              <rects>
                <_>
                  8 7 4 2 -1.</_>
                <_>
                  9 7 2 2 2.</_></rects>
              <tilted>0</tilted></feature>
            <threshold>1.4089669566601515e-03</threshold>
            <left_val>-0.9559379816055298</left_val>
            <right_val>0.3923664093017578</right_val></_></_>
        <_>
          <!-- tree 4 -->
          <_>
            <!-- root node -->
            <feature>
              <rects>
                <_>
                  5 1 4 2 -1.</_>
                <_>
                  6 2 2 2 2.</_></rects>
              <tilted>1</tilted></feature>
            <threshold>-0.0101675800979137</threshold>
            <left_node>1</left_node>
            <right_val>-0.9761626720428467</right_val></_>
          <_>
            <!-- node 1 -->
            <feature>
              <rects>
                <_>
                  1 7 14 8 -1.</_>
                <_>
                  8 7 7 8 2.</_></rects>
              <tilted>0</tilted></feature>
            <threshold>-0.0254433806985617</threshold>
            <left_val>0.7962393760681152</left_val>
            <right_val>-0.4436424076557159</right_val></_></_>
        <_>
          <!-- tree 5 -->
          <_>
            <!-- root node -->
            <feature>
              <rects>
                <_>
                  10 1 2 3 -1.</_>
                <_>
                  10 1 1 3 2.</_></rects>
              <tilted>0</tilted></feature>
            <threshold>2.6435669497004710e-05</threshold>
            <left_val>-0.8483942747116089</left_val>
            <right_node>1</right_node></_>
          <_>
            <!-- node 1 -->
            <feature>
              <rects>
                <_>
                  13 6 2 2 -1.</_>
                <_>
                  13 6 1 2 2.</_></rects>
              <tilted>1</tilted></feature>
            <threshold>2.6945139325107448e-05</threshold>
            <left_val>-0.7312263250350952</left_val>
            <right_val>0.3602178096771240</right_val></_></_>
        <_>
          <!-- tree 6 -->
          <_>
            <!-- root node -->
            <feature>
              <rects>
                <_>
                  6 6 2 2 -1.</_>
                <_>
                  6 6 2 1 2.</_></rects>
              <tilted>1</tilted></feature>
            <threshold>-4.8996040277415887e-05</threshold>
            <left_node>1</left_node>
            <right_val>-0.9923592209815979</right_val></_>
          <_>
            <!-- node 1 -->
            <feature>
              <rects>
                <_>
                  8 4 1 6 -1.</_>
                <_>
                  8 6 1 2 3.</_></rects>
              <tilted>0</tilted></feature>
            <threshold>9.5229642465710640e-03</threshold>
            <left_val>0.8505343198776245</left_val>
            <right_val>-0.9628139138221741</right_val></_></_>
        <_>
          <!-- tree 7 -->
          <_>
            <!-- root node -->
            <feature>
              <rects>
                <_>
                  10 1 2 3 -1.</_>
                <_>
                  10 1 1 3 2.</_></rects>
              <tilted>0</tilted></feature>
            <threshold>5.3549627773463726e-04</threshold>
            <left_val>-0.7059580087661743</left_val>
            <right_node>1</right_node></_>
          <_>
            <!-- node 1 -->
            <feature>
              <rects>
                <_>
                  5 1 9 6 -1.</_>
                <_>
                  5 3 9 2 3.</_></rects>
              <tilted>0</tilted></feature>
            <threshold>-1.5371399931609631e-03</threshold>
            <left_val>0.4357770085334778</left_val>
            <right_val>-0.9700766205787659</right_val></_></_>
        <_>
          <!-- tree 8 -->
          <_>
            <!-- root node -->
            <feature>
              <rects>
                <_>
                  7 1 2 3 -1.</_>
                <_>
                  8 1 1 3 2.</_></rects>
              <tilted>0</tilted></feature>
            <threshold>2.9880908550694585e-04</threshold>
            <left_val>-0.9156147241592407</left_val>
            <right_node>1</right_node></_>
          <_>
            <!-- node 1 -->
            <feature>
              <rects>
                <_>
                  3 9 6 2 -1.</_>
                <_>
                  3 9 3 2 2.</_></rects>
              <tilted>1</tilted></feature>
            <threshold>6.9134249351918697e-03</threshold>
            <left_val>-0.9152333140373230</left_val>
            <right_val>0.7767941951751709</right_val></_></_>
        <_>
          <!-- tree 9 -->
          <_>
            <!-- root node -->
            <feature>
              <rects>
                <_>
                  9 9 2 1 -1.</_>
                <_>
                  9 9 1 1 2.</_></rects>
              <tilted>0</tilted></feature>
            <threshold>-8.4103207336738706e-04</threshold>
            <left_val>0.5942863821983337</left_val>
            <right_node>1</right_node></_>
          <_>
            <!-- node 1 -->
            <feature>
              <rects>
                <_>
                  12 6 4 2 -1.</_>
                <_>
                  12 7 4 1 2.</_></rects>
              <tilted>0</tilted></feature>
            <threshold>1.9420789612922817e-04</threshold>
            <left_val>-0.9397035241127014</left_val>
            <right_val>0.3175329864025116</right_val></_></_>
        <_>
          <!-- tree 10 -->
          <_>
            <!-- root node -->
            <feature>
              <rects>
                <_>
                  8 9 2 1 -1.</_>
                <_>
                  9 9 1 1 2.</_></rects>
              <tilted>0</tilted></feature>
            <threshold>2.7935238904319704e-04</threshold>
            <left_val>-0.9731643795967102</left_val>
            <right_node>1</right_node></_>
          <_>
            <!-- node 1 -->
            <feature>
              <rects>
                <_>
                  8 6 1 2 -1.</_>
                <_>
                  8 6 1 1 2.</_></rects>
              <tilted>1</tilted></feature>
            <threshold>-4.5696629968006164e-05</threshold>
            <left_val>0.3630450069904327</left_val>
            <right_val>-0.9920033216476440</right_val></_></_></trees>
      <stage_threshold>-1.3473440408706665</stage_threshold>
      <parent>3</parent>
      <next>-1</next></_>
    <_>
      <!-- stage 7 -->
      <trees>
        <_>
          <!-- tree 0 -->
          <_>
            <!-- root node -->
            <feature>
              <rects>
                <_>
                  9 4 4 1 -1.</_>
                <_>
                  10 5 2 1 2.</_></rects>
              <tilted>1</tilted></feature>
            <threshold>7.5709336670115590e-05</threshold>
            <left_val>-0.9973871111869812</left_val>
            <right_node>1</right_node></_>
          <_>
            <!-- node 1 -->
            <feature>
              <rects>
                <_>
                  9 0 4 8 -1.</_>
                <_>
                  7 2 4 4 2.</_></rects>
              <tilted>1</tilted></feature>
            <threshold>-8.8641615584492683e-03</threshold>
            <left_val>0.9884052276611328</left_val>
            <right_val>-0.9999936819076538</right_val></_></_></trees>
      <stage_threshold>-0.9973871111869812</stage_threshold>
      <parent>4</parent>
      <next>-1</next></_>
    <_>
      <!-- stage 8 -->
      <trees>
        <_>
          <!-- tree 0 -->
          <_>
            <!-- root node -->
            <feature>
              <rects>
                <_>
                  1 0 17 9 -1.</_>
                <_>
                  1 3 17 3 3.</_></rects>
              <tilted>0</tilted></feature>
            <threshold>-0.1508471071720123</threshold>
            <left_node>1</left_node>
            <right_val>-0.7391592860221863</right_val></_>
          <_>
            <!-- node 1 -->
            <feature>
              <rects>
                <_>
                  8 1 2 8 -1.</_>
                <_>
                  9 1 1 8 2.</_></rects>
              <tilted>0</tilted></feature>
            <threshold>7.0536560378968716e-03</threshold>
            <left_val>-0.4048846960067749</left_val>
            <right_val>0.8808292150497437</right_val></_></_>
        <_>
          <!-- tree 1 -->
          <_>
            <!-- root node -->
            <feature>
              <rects>
                <_>
                  5 0 9 3 -1.</_>
                <_>
                  5 1 9 1 3.</_></rects>
              <tilted>0</tilted></feature>
            <threshold>0.0201573204249144</threshold>
            <left_node>1</left_node>
            <right_val>0.7929043173789978</right_val></_>
          <_>
            <!-- node 1 -->
            <feature>
              <rects>
                <_>
                  7 10 5 2 -1.</_>
                <_>
                  7 11 5 1 2.</_></rects>
              <tilted>0</tilted></feature>
            <threshold>-4.9468381330370903e-03</threshold>
            <left_val>0.5297585725784302</left_val>
            <right_val>-0.3123649060726166</right_val></_></_>
        <_>
          <!-- tree 2 -->
          <_>
            <!-- root node -->
            <feature>
              <rects>
                <_>
                  4 2 2 15 -1.</_>
                <_>
                  4 7 2 5 3.</_></rects>
              <tilted>0</tilted></feature>
            <threshold>0.0607641786336899</threshold>
            <left_val>-0.7487996816635132</left_val>
            <right_node>1</right_node></_>
          <_>
            <!-- node 1 -->
            <feature>
              <rects>
                <_>
                  2 1 15 6 -1.</_>
                <_>
                  7 1 5 6 3.</_></rects>
              <tilted>0</tilted></feature>
            <threshold>0.0932530909776688</threshold>
            <left_val>-0.5365933775901794</left_val>
            <right_val>0.6759012937545776</right_val></_></_>
        <_>
          <!-- tree 3 -->
          <_>
            <!-- root node -->
            <feature>
              <rects>
                <_>
                  12 17 1 2 -1.</_>
                <_>
                  12 18 1 1 2.</_></rects>
              <tilted>0</tilted></feature>
            <threshold>2.8099660994485021e-04</threshold>
            <left_val>-0.3826164901256561</left_val>
            <right_node>1</right_node></_>
          <_>
            <!-- node 1 -->
            <feature>
              <rects>
                <_>
                  11 6 1 6 -1.</_>
                <_>
                  9 8 1 2 3.</_></rects>
              <tilted>1</tilted></feature>
            <threshold>0.0216551907360554</threshold>
            <left_val>-0.0370654389262199</left_val>
            <right_val>-0.6880148053169250</right_val></_></_>
        <_>
          <!-- tree 4 -->
          <_>
            <!-- root node -->
            <feature>
              <rects>
                <_>
                  9 7 4 1 -1.</_>
                <_>
                  10 8 2 1 2.</_></rects>
              <tilted>1</tilted></feature>
            <threshold>4.3324599973857403e-03</threshold>
            <left_val>-0.5396890044212341</left_val>
            <right_node>1</right_node></_>
          <_>
            <!-- node 1 -->
            <feature>
              <rects>
                <_>
                  0 2 19 16 -1.</_>
                <_>
                  0 6 19 8 2.</_></rects>
              <tilted>0</tilted></feature>
            <threshold>0.1485466063022614</threshold>
            <left_val>-0.3176245093345642</left_val>
            <right_val>0.6222773790359497</right_val></_></_>
        <_>
          <!-- tree 5 -->
          <_>
            <!-- root node -->
            <feature>
              <rects>
                <_>
                  12 17 1 2 -1.</_>
                <_>
                  12 18 1 1 2.</_></rects>
              <tilted>0</tilted></feature>
            <threshold>5.3691808716394007e-05</threshold>
            <left_val>-0.1448878049850464</left_val>
            <right_node>1</right_node></_>
          <_>
            <!-- node 1 -->
            <feature>
              <rects>
                <_>
                  13 12 2 4 -1.</_>
                <_>
                  13 12 1 4 2.</_></rects>
              <tilted>1</tilted></feature>
            <threshold>0.0124805299565196</threshold>
            <left_val>0.0633586719632149</left_val>
            <right_val>-0.2977457940578461</right_val></_></_>
        <_>
          <!-- tree 6 -->
          <_>
            <!-- root node -->
            <feature>
              <rects>
                <_>
                  6 12 4 2 -1.</_>
                <_>
                  6 12 4 1 2.</_></rects>
              <tilted>1</tilted></feature>
            <threshold>1.4403110253624618e-04</threshold>
            <left_val>-0.5270239710807800</left_val>
            <right_node>1</right_node></_>
          <_>
            <!-- node 1 -->
            <feature>
              <rects>
                <_>
                  2 8 6 9 -1.</_>
                <_>
                  5 8 3 9 2.</_></rects>
              <tilted>0</tilted></feature>
            <threshold>-0.0157429296523333</threshold>
            <left_val>0.6631895899772644</left_val>
            <right_val>-0.3075515031814575</right_val></_></_></trees>
      <stage_threshold>-1.9921209812164307</stage_threshold>
      <parent>5</parent>
      <next>-1</next></_>
    <_>
      <!-- stage 9 -->
      <trees>
        <_>
          <!-- tree 0 -->
          <_>
            <!-- root node -->
            <feature>
              <rects>
                <_>
                  4 0 11 3 -1.</_>
                <_>
                  4 1 11 1 3.</_></rects>
              <tilted>0</tilted></feature>
            <threshold>0.0318797715008259</threshold>
            <left_node>1</left_node>
            <right_val>0.7876207828521729</right_val></_>
          <_>
            <!-- node 1 -->
            <feature>
              <rects>
                <_>
                  0 0 18 2 -1.</_>
                <_>
                  0 1 18 1 2.</_></rects>
              <tilted>0</tilted></feature>
            <threshold>-0.0348038710653782</threshold>
            <left_val>0.4883224964141846</left_val>
            <right_val>-0.7064779996871948</right_val></_></_>
        <_>
          <!-- tree 1 -->
          <_>
            <!-- root node -->
            <feature>
              <rects>
                <_>
                  2 1 15 6 -1.</_>
                <_>
                  7 1 5 6 3.</_></rects>
              <tilted>0</tilted></feature>
            <threshold>0.1191734969615936</threshold>
            <left_val>-0.6664379239082336</left_val>
            <right_node>1</right_node></_>
          <_>
            <!-- node 1 -->
            <feature>
              <rects>
                <_>
                  9 4 2 7 -1.</_>
                <_>
                  9 4 1 7 2.</_></rects>
              <tilted>0</tilted></feature>
            <threshold>-0.0104000195860863</threshold>
            <left_val>0.4720203876495361</left_val>
            <right_val>-0.1221124976873398</right_val></_></_>
        <_>
          <!-- tree 2 -->
          <_>
            <!-- root node -->
            <feature>
              <rects>
                <_>
                  9 4 4 1 -1.</_>
                <_>
                  10 5 2 1 2.</_></rects>
              <tilted>1</tilted></feature>
            <threshold>4.0174578316509724e-03</threshold>
            <left_val>-0.5421736836433411</left_val>
            <right_node>1</right_node></_>
          <_>
            <!-- node 1 -->
            <feature>
              <rects>
                <_>
                  7 5 5 3 -1.</_>
                <_>
                  7 6 5 1 3.</_></rects>
              <tilted>0</tilted></feature>
            <threshold>6.4582191407680511e-03</threshold>
            <left_val>0.7083535790443420</left_val>
            <right_val>-0.9076560139656067</right_val></_></_>
        <_>
          <!-- tree 3 -->
          <_>
            <!-- root node -->
            <feature>
              <rects>
                <_>
                  10 9 3 1 -1.</_>
                <_>
                  11 9 1 1 3.</_></rects>
              <tilted>0</tilted></feature>
            <threshold>-3.0012680217623711e-03</threshold>
            <left_node>1</left_node>
            <right_val>0.1209468990564346</right_val></_>
          <_>
            <!-- node 1 -->
            <feature>
              <rects>
                <_>
                  10 8 1 4 -1.</_>
                <_>
                  9 9 1 2 2.</_></rects>
              <tilted>1</tilted></feature>
            <threshold>6.7464420571923256e-03</threshold>
            <left_val>0.1221657022833824</left_val>
            <right_val>-0.6084117889404297</right_val></_></_>
        <_>
          <!-- tree 4 -->
          <_>
            <!-- root node -->
            <feature>
              <rects>
                <_>
                  1 17 6 2 -1.</_>
                <_>
                  1 17 3 1 2.</_>
                <_>
                  4 18 3 1 2.</_></rects>
              <tilted>0</tilted></feature>
            <threshold>1.3950329739600420e-03</threshold>
            <left_val>-0.5304635763168335</left_val>
            <right_node>1</right_node></_>
          <_>
            <!-- node 1 -->
            <feature>
              <rects>
                <_>
                  9 8 1 2 -1.</_>
                <_>
                  9 9 1 1 2.</_></rects>
              <tilted>0</tilted></feature>
            <threshold>-7.1265257429331541e-04</threshold>
            <left_val>-0.7150099277496338</left_val>
            <right_val>0.6128262877464294</right_val></_></_>
        <_>
          <!-- tree 5 -->
          <_>
            <!-- root node -->
            <feature>
              <rects>
                <_>
                  10 9 3 1 -1.</_>
                <_>
                  11 9 1 1 3.</_></rects>
              <tilted>0</tilted></feature>
            <threshold>-2.7662040665745735e-03</threshold>
            <left_node>1</left_node>
            <right_val>0.0783588737249374</right_val></_>
          <_>
            <!-- node 1 -->
            <feature>
              <rects>
                <_>
                  13 10 4 1 -1.</_>
                <_>
                  14 10 2 1 2.</_></rects>
              <tilted>0</tilted></feature>
            <threshold>-4.9789079639595002e-05</threshold>
            <left_val>0.1673375964164734</left_val>
            <right_val>-0.1183464005589485</right_val></_></_>
        <_>
          <!-- tree 6 -->
          <_>
            <!-- root node -->
            <feature>
              <rects>
                <_>
                  6 9 3 1 -1.</_>
                <_>
                  7 9 1 1 3.</_></rects>
              <tilted>0</tilted></feature>
            <threshold>-5.3766150813316926e-05</threshold>
            <left_node>1</left_node>
            <right_val>-0.7933195829391479</right_val></_>
          <_>
            <!-- node 1 -->
            <feature>
              <rects>
                <_>
                  2 10 4 1 -1.</_>
                <_>
                  3 10 2 1 2.</_></rects>
              <tilted>0</tilted></feature>
            <threshold>2.5190429369104095e-05</threshold>
            <left_val>-0.5442637205123901</left_val>
            <right_val>0.5236027836799622</right_val></_></_>
        <_>
          <!-- tree 7 -->
          <_>
            <!-- root node -->
            <feature>
              <rects>
                <_>
                  0 5 19 2 -1.</_>
                <_>
                  0 6 19 1 2.</_></rects>
              <tilted>0</tilted></feature>
            <threshold>0.0203308705240488</threshold>
            <left_val>-0.6462367177009583</left_val>
            <right_node>1</right_node></_>
          <_>
            <!-- node 1 -->
            <feature>
              <rects>
                <_>
                  9 6 2 3 -1.</_>
                <_>
                  9 7 2 1 3.</_></rects>
              <tilted>0</tilted></feature>
            <threshold>3.1801890581846237e-03</threshold>
            <left_val>0.0873035788536072</left_val>
            <right_val>-0.7977440953254700</right_val></_></_></trees>
      <stage_threshold>-2.1588819026947021</stage_threshold>
      <parent>6</parent>
      <next>-1</next></_>
    <_>
      <!-- stage 10 -->
      <trees>
        <_>
          <!-- tree 0 -->
          <_>
            <!-- root node -->
            <feature>
              <rects>
                <_>
                  2 2 15 6 -1.</_>
                <_>
                  7 2 5 6 3.</_></rects>
              <tilted>0</tilted></feature>
            <threshold>0.1186916008591652</threshold>
            <left_val>-0.8150209784507751</left_val>
            <right_node>1</right_node></_>
          <_>
            <!-- node 1 -->
            <feature>
              <rects>
                <_>
                  5 1 9 6 -1.</_>
                <_>
                  5 3 9 2 3.</_></rects>
              <tilted>0</tilted></feature>
            <threshold>-0.0210889093577862</threshold>
            <left_val>0.8787853717803955</left_val>
            <right_val>-0.8032755255699158</right_val></_></_>
        <_>
          <!-- tree 1 -->
          <_>
            <!-- root node -->
            <feature>
              <rects>
                <_>
                  9 4 2 7 -1.</_>
                <_>
                  9 4 1 7 2.</_></rects>
              <tilted>0</tilted></feature>
            <threshold>-4.7147260047495365e-03</threshold>
            <left_val>0.4846177101135254</left_val>
            <right_node>1</right_node></_>
          <_>
            <!-- node 1 -->
            <feature>
              <rects>
                <_>
                  13 10 2 1 -1.</_>
                <_>
                  13 10 1 1 2.</_></rects>
              <tilted>0</tilted></feature>
            <threshold>-2.4974509869934991e-05</threshold>
            <left_val>0.3153117001056671</left_val>
            <right_val>-0.1790522933006287</right_val></_></_>
        <_>
          <!-- tree 2 -->
          <_>
            <!-- root node -->
            <feature>
              <rects>
                <_>
                  1 0 17 3 -1.</_>
                <_>
                  1 1 17 1 3.</_></rects>
              <tilted>0</tilted></feature>
            <threshold>0.0352399200201035</threshold>
            <left_node>1</left_node>
            <right_val>0.7497583031654358</right_val></_>
          <_>
            <!-- node 1 -->
            <feature>
              <rects>
                <_>
                  7 2 4 16 -1.</_>
                <_>
                  9 2 2 16 2.</_></rects>
              <tilted>0</tilted></feature>
            <threshold>0.0841696336865425</threshold>
            <left_val>-0.8228800296783447</left_val>
            <right_val>0.6036074757575989</right_val></_></_>
        <_>
          <!-- tree 3 -->
          <_>
            <!-- root node -->
            <feature>
              <rects>
                <_>
                  10 4 1 4 -1.</_>
                <_>
                  9 5 1 2 2.</_></rects>
              <tilted>1</tilted></feature>
            <threshold>-2.3315059952437878e-03</threshold>
            <left_val>0.1339516937732697</left_val>
            <right_node>1</right_node></_>
          <_>
            <!-- node 1 -->
            <feature>
              <rects>
                <_>
                  15 3 4 8 -1.</_>
                <_>
                  17 3 2 4 2.</_>
                <_>
                  15 7 2 4 2.</_></rects>
              <tilted>0</tilted></feature>
            <threshold>2.2187929134815931e-03</threshold>
            <left_val>-0.5466790795326233</left_val>
            <right_val>0.1115899980068207</right_val></_></_>
        <_>
          <!-- tree 4 -->
          <_>
            <!-- root node -->
            <feature>
              <rects>
                <_>
                  9 4 4 1 -1.</_>
                <_>
                  10 5 2 1 2.</_></rects>
              <tilted>1</tilted></feature>
            <threshold>4.0108771063387394e-03</threshold>
            <left_val>-0.9094458818435669</left_val>
            <right_node>1</right_node></_>
          <_>
            <!-- node 1 -->
            <feature>
              <rects>
                <_>
                  0 3 4 8 -1.</_>
                <_>
                  0 3 2 4 2.</_>
                <_>
                  2 7 2 4 2.</_></rects>
              <tilted>0</tilted></feature>
            <threshold>5.3347810171544552e-03</threshold>
            <left_val>-0.7845672965049744</left_val>
            <right_val>0.7067574858665466</right_val></_></_></trees>
      <stage_threshold>-1.7921539545059204</stage_threshold>
      <parent>7</parent>
      <next>-1</next></_>
    <_>
      <!-- stage 11 -->
      <trees>
        <_>
          <!-- tree 0 -->
          <_>
            <!-- root node -->
            <feature>
              <rects>
                <_>
                  0 3 19 8 -1.</_>
                <_>
                  0 7 19 4 2.</_></rects>
              <tilted>0</tilted></feature>
            <threshold>0.2221132069826126</threshold>
            <left_val>-0.6862360835075378</left_val>
            <right_node>1</right_node></_>
          <_>
            <!-- node 1 -->
            <feature>
              <rects>
                <_>
                  2 1 15 6 -1.</_>
                <_>
                  7 1 5 6 3.</_></rects>
              <tilted>0</tilted></feature>
            <threshold>0.0823959186673164</threshold>
            <left_val>-0.6510506868362427</left_val>
            <right_val>0.8280705213546753</right_val></_></_>
        <_>
          <!-- tree 1 -->
          <_>
            <!-- root node -->
            <feature>
              <rects>
                <_>
                  2 0 15 3 -1.</_>
                <_>
                  2 1 15 1 3.</_></rects>
              <tilted>0</tilted></feature>
            <threshold>0.0377859883010387</threshold>
            <left_node>1</left_node>
            <right_val>0.7447252869606018</right_val></_>
          <_>
            <!-- node 1 -->
            <feature>
              <rects>
                <_>
                  1 0 17 2 -1.</_>
                <_>
                  1 1 17 1 2.</_></rects>
              <tilted>0</tilted></feature>
            <threshold>0.0327044911682606</threshold>
            <left_val>-0.1955793946981430</left_val>
            <right_val>0.7334632873535156</right_val></_></_>
        <_>
          <!-- tree 2 -->
          <_>
            <!-- root node -->
            <feature>
              <rects>
                <_>
                  8 1 2 10 -1.</_>
                <_>
                  9 1 1 10 2.</_></rects>
              <tilted>0</tilted></feature>
            <threshold>0.0116546498611569</threshold>
            <left_val>-0.6275123953819275</left_val>
            <right_node>1</right_node></_>
          <_>
            <!-- node 1 -->
            <feature>
              <rects>
                <_>
                  5 7 6 4 -1.</_>
                <_>
                  5 7 3 4 2.</_></rects>
              <tilted>1</tilted></feature>
            <threshold>0.0185667704790831</threshold>
            <left_val>-0.7975577116012573</left_val>
            <right_val>0.5676547288894653</right_val></_></_>
        <_>
          <!-- tree 3 -->
          <_>
            <!-- root node -->
            <feature>
              <rects>
                <_>
                  0 1 19 6 -1.</_>
                <_>
                  0 3 19 2 3.</_></rects>
              <tilted>0</tilted></feature>
            <threshold>-0.0815691426396370</threshold>
            <left_node>1</left_node>
            <right_val>-0.4672276973724365</right_val></_>
          <_>
            <!-- node 1 -->
            <feature>
              <rects>
                <_>
                  2 2 15 3 -1.</_>
                <_>
                  7 2 5 3 3.</_></rects>
              <tilted>0</tilted></feature>
            <threshold>0.0914205163717270</threshold>
            <left_val>-0.2841270864009857</left_val>
            <right_val>0.5025001168251038</right_val></_></_>
        <_>
          <!-- tree 4 -->
          <_>
            <!-- root node -->
            <feature>
              <rects>
                <_>
                  3 8 9 4 -1.</_>
                <_>
                  3 9 9 2 2.</_></rects>
              <tilted>0</tilted></feature>
            <threshold>4.1658449918031693e-03</threshold>
            <left_val>-0.4610176086425781</left_val>
            <right_node>1</right_node></_>
          <_>
            <!-- node 1 -->
            <feature>
              <rects>
                <_>
                  7 6 3 3 -1.</_>
                <_>
                  7 7 3 1 3.</_></rects>
              <tilted>0</tilted></feature>
            <threshold>-3.2640649005770683e-03</threshold>
            <left_val>-0.7865722775459290</left_val>
            <right_val>0.5902137756347656</right_val></_></_>
        <_>
          <!-- tree 5 -->
          <_>
            <!-- root node -->
            <feature>
              <rects>
                <_>
                  3 0 13 2 -1.</_>
                <_>
                  3 1 13 1 2.</_></rects>
              <tilted>0</tilted></feature>
            <threshold>-0.0351669304072857</threshold>
            <left_val>0.8258103132247925</left_val>
            <right_node>1</right_node></_>
          <_>
            <!-- node 1 -->
            <feature>
              <rects>
                <_>
                  17 2 2 16 -1.</_>
                <_>
                  17 2 1 16 2.</_></rects>
              <tilted>0</tilted></feature>
            <threshold>8.6267348378896713e-03</threshold>
            <left_val>-0.1010932996869087</left_val>
            <right_val>0.2602829933166504</right_val></_></_>
        <_>
          <!-- tree 6 -->
          <_>
            <!-- root node -->
            <feature>
              <rects>
                <_>
                  2 15 4 4 -1.</_>
                <_>
                  2 15 2 2 2.</_>
                <_>
                  4 17 2 2 2.</_></rects>
              <tilted>0</tilted></feature>
            <threshold>4.5470641925930977e-03</threshold>
            <left_node>1</left_node>
            <right_val>0.2905671894550323</right_val></_>
          <_>
            <!-- node 1 -->
            <feature>
              <rects>
                <_>
                  0 7 2 12 -1.</_>
                <_>
                  1 7 1 12 2.</_></rects>
              <tilted>0</tilted></feature>
            <threshold>0.0237219706177711</threshold>
            <left_val>-0.6279060244560242</left_val>
            <right_val>0.4677697122097015</right_val></_></_>
        <_>
          <!-- tree 7 -->
          <_>
            <!-- root node -->
            <feature>
              <rects>
                <_>
                  10 8 3 1 -1.</_>
                <_>
                  11 8 1 1 3.</_></rects>
              <tilted>0</tilted></feature>
            <threshold>-5.7631921954452991e-03</threshold>
            <left_node>1</left_node>
            <right_val>-9.1372488532215357e-04</right_val></_>
          <_>
            <!-- node 1 -->
            <feature>
              <rects>
                <_>
                  9 1 4 3 -1.</_>
                <_>
                  9 1 2 3 2.</_></rects>
              <tilted>0</tilted></feature>
            <threshold>7.8747601946815848e-04</threshold>
            <left_val>-0.2731240093708038</left_val>
            <right_val>0.0984051972627640</right_val></_></_>
        <_>
          <!-- tree 8 -->
          <_>
            <!-- root node -->
            <feature>
              <rects>
                <_>
                  6 8 3 1 -1.</_>
                <_>
                  7 8 1 1 3.</_></rects>
              <tilted>0</tilted></feature>
            <threshold>-4.8482910642633215e-05</threshold>
            <left_node>1</left_node>
            <right_val>-0.7418851852416992</right_val></_>
          <_>
            <!-- node 1 -->
            <feature>
              <rects>
                <_>
                  6 1 4 3 -1.</_>
                <_>
                  8 1 2 3 2.</_></rects>
              <tilted>0</tilted></feature>
            <threshold>5.2578970789909363e-03</threshold>
            <left_val>-0.4895653128623962</left_val>
            <right_val>0.4151247143745422</right_val></_></_></trees>
      <stage_threshold>-1.8124020099639893</stage_threshold>
      <parent>8</parent>
      <next>-1</next></_>
    <_>
      <!-- stage 12 -->
      <trees>
        <_>
          <!-- tree 0 -->
          <_>
            <!-- root node -->
            <feature>
              <rects>
                <_>
                  2 0 15 3 -1.</_>
                <_>
                  2 1 15 1 3.</_></rects>
              <tilted>0</tilted></feature>
            <threshold>0.0456841811537743</threshold>
            <left_node>1</left_node>
            <right_val>0.6894115209579468</right_val></_>
          <_>
            <!-- node 1 -->
            <feature>
              <rects>
                <_>
                  1 0 17 8 -1.</_>
                <_>
                  1 2 17 4 2.</_></rects>
              <tilted>0</tilted></feature>
            <threshold>-0.2167561054229736</threshold>
            <left_val>0.3709008991718292</left_val>
            <right_val>-0.6488518714904785</right_val></_></_>
        <_>
          <!-- tree 1 -->
          <_>
            <!-- root node -->
            <feature>
              <rects>
                <_>
                  2 1 15 6 -1.</_>
                <_>
                  7 1 5 6 3.</_></rects>
              <tilted>0</tilted></feature>
            <threshold>0.1442610025405884</threshold>
            <left_val>-0.5101246237754822</left_val>
            <right_node>1</right_node></_>
          <_>
            <!-- node 1 -->
            <feature>
              <rects>
                <_>
                  0 2 19 16 -1.</_>
                <_>
                  0 6 19 8 2.</_></rects>
              <tilted>0</tilted></feature>
            <threshold>0.3618546128273010</threshold>
            <left_val>-0.5372930765151978</left_val>
            <right_val>0.3463478982448578</right_val></_></_>
        <_>
          <!-- tree 2 -->
          <_>
            <!-- root node -->
            <feature>
              <rects>
                <_>
                  8 1 2 10 -1.</_>
                <_>
                  9 1 1 10 2.</_></rects>
              <tilted>0</tilted></feature>
            <threshold>0.0118290502578020</threshold>
            <left_val>-0.4525693058967590</left_val>
            <right_node>1</right_node></_>
          <_>
            <!-- node 1 -->
            <feature>
              <rects>
                <_>
                  2 11 6 1 -1.</_>
                <_>
                  2 11 3 1 2.</_></rects>
              <tilted>1</tilted></feature>
            <threshold>1.4298739843070507e-03</threshold>
            <left_val>-0.3771812021732330</left_val>
            <right_val>0.7048138976097107</right_val></_></_>
        <_>
          <!-- tree 3 -->
          <_>
            <!-- root node -->
            <feature>
              <rects>
                <_>
                  15 4 4 6 -1.</_>
                <_>
                  17 4 2 3 2.</_>
                <_>
                  15 7 2 3 2.</_></rects>
              <tilted>0</tilted></feature>
            <threshold>1.5221340581774712e-03</threshold>
            <left_val>-0.1502306014299393</left_val>
            <right_node>1</right_node></_>
          <_>
            <!-- node 1 -->
            <feature>
              <rects>
                <_>
                  4 1 12 6 -1.</_>
                <_>
                  7 1 6 6 2.</_></rects>
              <tilted>0</tilted></feature>
            <threshold>0.0431444607675076</threshold>
            <left_val>-0.6933246850967407</left_val>
            <right_val>0.2995038032531738</right_val></_></_>
        <_>
          <!-- tree 4 -->
          <_>
            <!-- root node -->
            <feature>
              <rects>
                <_>
                  0 9 6 3 -1.</_>
                <_>
                  2 9 2 3 3.</_></rects>
              <tilted>0</tilted></feature>
            <threshold>6.2375720590353012e-03</threshold>
            <left_val>-0.4732958078384399</left_val>
            <right_node>1</right_node></_>
          <_>
            <!-- node 1 -->
            <feature>
              <rects>
                <_>
                  7 7 1 3 -1.</_>
                <_>
                  6 8 1 1 3.</_></rects>
              <tilted>1</tilted></feature>
            <threshold>-2.2298588883131742e-03</threshold>
            <left_val>-0.8005154132843018</left_val>
            <right_val>0.5703871250152588</right_val></_></_>
        <_>
          <!-- tree 5 -->
          <_>
            <!-- root node -->
            <feature>
              <rects>
                <_>
                  9 9 1 3 -1.</_>
                <_>
                  9 10 1 1 3.</_></rects>
              <tilted>0</tilted></feature>
            <threshold>5.3733350796392187e-05</threshold>
            <left_val>-0.6044241189956665</left_val>
            <right_node>1</right_node></_>
          <_>
            <!-- node 1 -->
            <feature>
              <rects>
                <_>
                  9 8 2 3 -1.</_>
                <_>
                  9 9 2 1 3.</_></rects>
              <tilted>0</tilted></feature>
            <threshold>-1.0679629631340504e-03</threshold>
            <left_val>-0.7711353898048401</left_val>
            <right_val>0.1025461032986641</right_val></_></_>
        <_>
          <!-- tree 6 -->
          <_>
            <!-- root node -->
            <feature>
              <rects>
                <_>
                  5 5 5 2 -1.</_>
                <_>
                  5 6 5 1 2.</_></rects>
              <tilted>0</tilted></feature>
            <threshold>2.1749311126768589e-03</threshold>
            <left_val>-0.6804736256599426</left_val>
            <right_node>1</right_node></_>
          <_>
            <!-- node 1 -->
            <feature>
              <rects>
                <_>
                  6 5 7 3 -1.</_>
                <_>
                  6 6 7 1 3.</_></rects>
              <tilted>0</tilted></feature>
            <threshold>8.2620671018958092e-03</threshold>
            <left_val>0.4876911938190460</left_val>
            <right_val>-0.9169232249259949</right_val></_></_></trees>
      <stage_threshold>-1.6720039844512939</stage_threshold>
      <parent>9</parent>
      <next>-1</next></_>
    <_>
      <!-- stage 13 -->
      <trees>
        <_>
          <!-- tree 0 -->
          <_>
            <!-- root node -->
            <feature>
              <rects>
                <_>
                  8 3 2 8 -1.</_>
                <_>
                  9 3 1 8 2.</_></rects>
              <tilted>0</tilted></feature>
            <threshold>9.3235364183783531e-03</threshold>
            <left_val>-0.8565759062767029</left_val>
            <right_node>1</right_node></_>
          <_>
            <!-- node 1 -->
            <feature>
              <rects>
                <_>
                  2 1 15 7 -1.</_>
                <_>
                  7 1 5 7 3.</_></rects>
              <tilted>0</tilted></feature>
            <threshold>0.0893931165337563</threshold>
            <left_val>-0.9083443880081177</left_val>
            <right_val>0.7662414908409119</right_val></_></_>
        <_>
          <!-- tree 1 -->
          <_>
            <!-- root node -->
            <feature>
              <rects>
                <_>
                  17 11 1 6 -1.</_>
                <_>
                  17 11 1 3 2.</_></rects>
              <tilted>1</tilted></feature>
            <threshold>1.7729330575093627e-03</threshold>
            <left_val>-0.7287135124206543</left_val>
            <right_node>1</right_node></_>
          <_>
            <!-- node 1 -->
            <feature>
              <rects>
                <_>
                  8 8 7 4 -1.</_>
                <_>
                  8 9 7 2 2.</_></rects>
              <tilted>0</tilted></feature>
            <threshold>1.8541680183261633e-03</threshold>
            <left_val>-0.9824990034103394</left_val>
            <right_val>0.2934288978576660</right_val></_></_>
        <_>
          <!-- tree 2 -->
          <_>
            <!-- root node -->
            <feature>
              <rects>
                <_>
                  4 10 2 1 -1.</_>
                <_>
                  5 10 1 1 2.</_></rects>
              <tilted>0</tilted></feature>
            <threshold>-6.1641141655854881e-05</threshold>
            <left_node>1</left_node>
            <right_val>-0.9383975863456726</right_val></_>
          <_>
            <!-- node 1 -->
            <feature>
              <rects>
                <_>
                  0 5 1 8 -1.</_>
                <_>
                  0 7 1 4 2.</_></rects>
              <tilted>0</tilted></feature>
            <threshold>0.0125809004530311</threshold>
            <left_val>0.8277801275253296</left_val>
            <right_val>-0.4283482134342194</right_val></_></_>
        <_>
          <!-- tree 3 -->
          <_>
            <!-- root node -->
            <feature>
              <rects>
                <_>
                  8 13 6 4 -1.</_>
                <_>
                  11 13 3 2 2.</_>
                <_>
                  8 15 3 2 2.</_></rects>
              <tilted>0</tilted></feature>
            <threshold>1.5409049810841680e-03</threshold>
            <left_node>1</left_node>
            <right_val>0.5400217771530151</right_val></_>
          <_>
            <!-- node 1 -->
            <feature>
              <rects>
                <_>
                  8 11 3 4 -1.</_>
                <_>
                  8 13 3 2 2.</_></rects>
              <tilted>0</tilted></feature>
            <threshold>-0.0140933999791741</threshold>
            <left_val>0.5929868221282959</left_val>
            <right_val>-0.5386267900466919</right_val></_></_>
        <_>
          <!-- tree 4 -->
          <_>
            <!-- root node -->
            <feature>
              <rects>
                <_>
                  6 13 6 4 -1.</_>
                <_>
                  6 13 3 2 2.</_>
                <_>
                  9 15 3 2 2.</_></rects>
              <tilted>0</tilted></feature>
            <threshold>6.6211610101163387e-03</threshold>
            <left_node>1</left_node>
            <right_val>0.6118500828742981</right_val></_>
          <_>
            <!-- node 1 -->
            <feature>
              <rects>
                <_>
                  0 1 6 2 -1.</_>
                <_>
                  0 1 3 1 2.</_>
                <_>
                  3 2 3 1 2.</_></rects>
              <tilted>0</tilted></feature>
            <threshold>-4.0292181074619293e-03</threshold>
            <left_val>0.1390165984630585</left_val>
            <right_val>-0.8636806011199951</right_val></_></_>
        <_>
          <!-- tree 5 -->
          <_>
            <!-- root node -->
            <feature>
              <rects>
                <_>
                  2 4 15 2 -1.</_>
                <_>
                  7 4 5 2 3.</_></rects>
              <tilted>0</tilted></feature>
            <threshold>0.0582660995423794</threshold>
            <left_node>1</left_node>
            <right_val>0.4600900113582611</right_val></_>
          <_>
            <!-- node 1 -->
            <feature>
              <rects>
                <_>
                  5 5 9 6 -1.</_>
                <_>
                  8 5 3 6 3.</_></rects>
              <tilted>0</tilted></feature>
            <threshold>0.0417583398520947</threshold>
            <left_val>-0.9505969882011414</left_val>
            <right_val>0.0939911231398582</right_val></_></_>
        <_>
          <!-- tree 6 -->
          <_>
            <!-- root node -->
            <feature>
              <rects>
                <_>
                  6 15 7 3 -1.</_>
                <_>
                  6 16 7 1 3.</_></rects>
              <tilted>0</tilted></feature>
            <threshold>-0.0119250295683742</threshold>
            <left_val>0.6517605185508728</left_val>
            <right_node>1</right_node></_>
          <_>
            <!-- node 1 -->
            <feature>
              <rects>
                <_>
                  0 2 2 2 -1.</_>
                <_>
                  1 2 1 2 2.</_></rects>
              <tilted>0</tilted></feature>
            <threshold>4.5264801010489464e-03</threshold>
            <left_val>-0.9884067773818970</left_val>
            <right_val>0.4283356070518494</right_val></_></_></trees>
      <stage_threshold>-1.7445080280303955</stage_threshold>
      <parent>10</parent>
      <next>-1</next></_>
    <_>
      <!-- stage 14 -->
      <trees>
        <_>
          <!-- tree 0 -->
          <_>
            <!-- root node -->
            <feature>
              <rects>
                <_>
                  0 2 19 15 -1.</_>
                <_>
                  0 7 19 5 3.</_></rects>
              <tilted>0</tilted></feature>
            <threshold>0.4933370947837830</threshold>
            <left_val>-0.5869423151016235</left_val>
            <right_node>1</right_node></_>
          <_>
            <!-- node 1 -->
            <feature>
              <rects>
                <_>
                  8 3 2 9 -1.</_>
                <_>
                  9 3 1 9 2.</_></rects>
              <tilted>0</tilted></feature>
            <threshold>7.0390799082815647e-03</threshold>
            <left_val>-0.5580865740776062</left_val>
            <right_val>0.8281410932540894</right_val></_></_>
        <_>
          <!-- tree 1 -->
          <_>
            <!-- root node -->
            <feature>
              <rects>
                <_>
                  0 1 19 6 -1.</_>
                <_>
                  0 3 19 2 3.</_></rects>
              <tilted>0</tilted></feature>
            <threshold>-0.0862386226654053</threshold>
            <left_node>1</left_node>
            <right_val>-0.4684736132621765</right_val></_>
          <_>
            <!-- node 1 -->
            <feature>
              <rects>
                <_>
                  2 3 15 3 -1.</_>
                <_>
                  7 4 5 1 9.</_></rects>
              <tilted>0</tilted></feature>
            <threshold>0.0161876995116472</threshold>
            <left_val>-0.5574284791946411</left_val>
            <right_val>0.3109785914421082</right_val></_></_>
        <_>
          <!-- tree 2 -->
          <_>
            <!-- root node -->
            <feature>
              <rects>
                <_>
                  2 0 15 3 -1.</_>
                <_>
                  7 1 5 1 9.</_></rects>
              <tilted>0</tilted></feature>
            <threshold>0.0701723918318748</threshold>
            <left_node>1</left_node>
            <right_val>0.5578143000602722</right_val></_>
          <_>
            <!-- node 1 -->
            <feature>
              <rects>
                <_>
                  3 0 13 2 -1.</_>
                <_>
                  3 1 13 1 2.</_></rects>
              <tilted>0</tilted></feature>
            <threshold>-0.0398405902087688</threshold>
            <left_val>0.6501753926277161</left_val>
            <right_val>-0.5592843294143677</right_val></_></_>
        <_>
          <!-- tree 3 -->
          <_>
            <!-- root node -->
            <feature>
              <rects>
                <_>
                  12 17 1 2 -1.</_>
                <_>
                  12 18 1 1 2.</_></rects>
              <tilted>0</tilted></feature>
            <threshold>3.3786069252528250e-04</threshold>
            <left_val>-0.2485906034708023</left_val>
            <right_node>1</right_node></_>
          <_>
            <!-- node 1 -->
            <feature>
              <rects>
                <_>
                  10 4 1 4 -1.</_>
                <_>
                  9 5 1 2 2.</_></rects>
              <tilted>1</tilted></feature>
            <threshold>-1.8733430188149214e-03</threshold>
            <left_val>0.1836419999599457</left_val>
            <right_val>-0.5443732738494873</right_val></_></_>
        <_>
          <!-- tree 4 -->
          <_>
            <!-- root node -->
            <feature>
              <rects>
                <_>
                  3 8 13 3 -1.</_>
                <_>
                  3 9 13 1 3.</_></rects>
              <tilted>0</tilted></feature>
            <threshold>2.8943030629307032e-03</threshold>
            <left_val>-0.5237001180648804</left_val>
            <right_node>1</right_node></_>
          <_>
            <!-- node 1 -->
            <feature>
              <rects>
                <_>
                  3 10 4 1 -1.</_>
                <_>
                  5 10 2 1 2.</_></rects>
              <tilted>0</tilted></feature>
            <threshold>-2.8061389457434416e-04</threshold>
            <left_val>0.5480632185935974</left_val>
            <right_val>-0.5023999810218811</right_val></_></_>
        <_>
          <!-- tree 5 -->
          <_>
            <!-- root node -->
            <feature>
              <rects>
                <_>
                  10 5 3 2 -1.</_>
                <_>
                  10 6 3 1 2.</_></rects>
              <tilted>0</tilted></feature>
            <threshold>7.7655701898038387e-03</threshold>
            <left_val>0.0398941598832607</left_val>
            <right_node>1</right_node></_>
          <_>
            <!-- node 1 -->
            <feature>
              <rects>
                <_>
                  10 5 1 3 -1.</_>
                <_>
                  10 6 1 1 3.</_></rects>
              <tilted>0</tilted></feature>
            <threshold>-1.4310040278360248e-03</threshold>
            <left_val>-0.7293066978454590</left_val>
            <right_val>0.1259161978960037</right_val></_></_>
        <_>
          <!-- tree 6 -->
          <_>
            <!-- root node -->
            <feature>
              <rects>
                <_>
                  6 5 3 2 -1.</_>
                <_>
                  6 6 3 1 2.</_></rects>
              <tilted>0</tilted></feature>
            <threshold>1.0040800552815199e-03</threshold>
            <left_val>-0.5654054284095764</left_val>
            <right_node>1</right_node></_>
          <_>
            <!-- node 1 -->
            <feature>
              <rects>
                <_>
                  8 5 1 3 -1.</_>
                <_>
                  8 6 1 1 3.</_></rects>
              <tilted>0</tilted></feature>
            <threshold>1.3395199785009027e-03</threshold>
            <left_val>0.4076408147811890</left_val>
            <right_val>-0.8947445750236511</right_val></_></_>
        <_>
          <!-- tree 7 -->
          <_>
            <!-- root node -->
            <feature>
              <rects>
                <_>
                  17 10 2 9 -1.</_>
                <_>
                  17 10 1 9 2.</_></rects>
              <tilted>0</tilted></feature>
            <threshold>6.6196331754326820e-03</threshold>
            <left_node>1</left_node>
            <right_val>0.3064326047897339</right_val></_>
          <_>
            <!-- node 1 -->
            <feature>
              <rects>
                <_>
                  17 3 2 16 -1.</_>
                <_>
                  17 3 1 16 2.</_></rects>
              <tilted>0</tilted></feature>
            <threshold>0.0112562300637364</threshold>
            <left_val>-0.1548946052789688</left_val>
            <right_val>0.2416051030158997</right_val></_></_>
        <_>
          <!-- tree 8 -->
          <_>
            <!-- root node -->
            <feature>
              <rects>
                <_>
                  3 17 4 2 -1.</_>
                <_>
                  3 17 2 1 2.</_>
                <_>
                  5 18 2 1 2.</_></rects>
              <tilted>0</tilted></feature>
            <threshold>6.7097251303493977e-04</threshold>
            <left_val>-0.4873793125152588</left_val>
            <right_node>1</right_node></_>
          <_>
            <!-- node 1 -->
            <feature>
              <rects>
                <_>
                  8 6 1 3 -1.</_>
                <_>
                  8 7 1 1 3.</_></rects>
              <tilted>0</tilted></feature>
            <threshold>1.5306799905374646e-03</threshold>
            <left_val>0.4394384920597076</left_val>
            <right_val>-0.7497950196266174</right_val></_></_></trees>
      <stage_threshold>-1.9763499498367310</stage_threshold>
      <parent>11</parent>
      <next>-1</next></_>
    <_>
      <!-- stage 15 -->
      <trees>
        <_>
          <!-- tree 0 -->
          <_>
            <!-- root node -->
            <feature>
              <rects>
                <_>
                  2 0 15 3 -1.</_>
                <_>
                  2 1 15 1 3.</_></rects>
              <tilted>0</tilted></feature>
            <threshold>0.0340816117823124</threshold>
            <left_node>1</left_node>
            <right_val>0.5557705163955688</right_val></_>
          <_>
            <!-- node 1 -->
            <feature>
              <rects>
                <_>
                  0 0 2 19 -1.</_>
                <_>
                  1 0 1 19 2.</_></rects>
              <tilted>0</tilted></feature>
            <threshold>-0.0321630202233791</threshold>
            <left_val>0.7337281107902527</left_val>
            <right_val>-0.6186826825141907</right_val></_></_>
        <_>
          <!-- tree 1 -->
          <_>
            <!-- root node -->
            <feature>
              <rects>
                <_>
                  2 2 15 5 -1.</_>
                <_>
                  7 2 5 5 3.</_></rects>
              <tilted>0</tilted></feature>
            <threshold>0.1157341971993446</threshold>
            <left_val>-0.5720393061637878</left_val>
            <right_node>1</right_node></_>
          <_>
            <!-- node 1 -->
            <feature>
              <rects>
                <_>
                  13 10 6 2 -1.</_>
                <_>
                  15 10 2 2 3.</_></rects>
              <tilted>0</tilted></feature>
            <threshold>1.9538139458745718e-03</threshold>
            <left_val>-0.3457343876361847</left_val>
            <right_val>0.2452048063278198</right_val></_></_>
        <_>
          <!-- tree 2 -->
          <_>
            <!-- root node -->
            <feature>
              <rects>
                <_>
                  8 4 2 8 -1.</_>
                <_>
                  9 4 1 8 2.</_></rects>
              <tilted>0</tilted></feature>
            <threshold>7.7492878772318363e-03</threshold>
            <left_val>-0.5153992176055908</left_val>
            <right_node>1</right_node></_>
          <_>
            <!-- node 1 -->
            <feature>
              <rects>
                <_>
                  4 4 1 12 -1.</_>
                <_>
                  4 7 1 6 2.</_></rects>
              <tilted>0</tilted></feature>
            <threshold>0.0175730697810650</threshold>
            <left_val>-0.3322297930717468</left_val>
            <right_val>0.6841557025909424</right_val></_></_>
        <_>
          <!-- tree 3 -->
          <_>
            <!-- root node -->
            <feature>
              <rects>
                <_>
                  17 7 2 11 -1.</_>
                <_>
                  17 7 1 11 2.</_></rects>
              <tilted>0</tilted></feature>
            <threshold>0.0115915099158883</threshold>
            <left_node>1</left_node>
            <right_val>0.3381982147693634</right_val></_>
          <_>
            <!-- node 1 -->
            <feature>
              <rects>
                <_>
                  13 15 4 4 -1.</_>
                <_>
                  15 15 2 2 2.</_>
                <_>
                  13 17 2 2 2.</_></rects>
              <tilted>0</tilted></feature>
            <threshold>5.3808591328561306e-03</threshold>
            <left_val>-0.0520535707473755</left_val>
            <right_val>0.3891932070255280</right_val></_></_>
        <_>
          <!-- tree 4 -->
          <_>
            <!-- root node -->
            <feature>
              <rects>
                <_>
                  0 7 2 11 -1.</_>
                <_>
                  1 7 1 11 2.</_></rects>
              <tilted>0</tilted></feature>
            <threshold>0.0132912397384644</threshold>
            <left_node>1</left_node>
            <right_val>0.6098334193229675</right_val></_>
          <_>
            <!-- node 1 -->
            <feature>
              <rects>
                <_>
                  6 17 1 2 -1.</_>
                <_>
                  6 18 1 1 2.</_></rects>
              <tilted>0</tilted></feature>
            <threshold>3.7409728975035250e-04</threshold>
            <left_val>-0.7173140048980713</left_val>
            <right_val>0.0216556992381811</right_val></_></_>
        <_>
          <!-- tree 5 -->
          <_>
            <!-- root node -->
            <feature>
              <rects>
                <_>
                  8 5 4 3 -1.</_>
                <_>
                  8 6 4 1 3.</_></rects>
              <tilted>0</tilted></feature>
            <threshold>-2.4927859194576740e-03</threshold>
            <left_val>-0.7420263290405273</left_val>
            <right_node>1</right_node></_>
          <_>
            <!-- node 1 -->
            <feature>
              <rects>
                <_>
                  9 6 3 3 -1.</_>
                <_>
                  9 7 3 1 3.</_></rects>
              <tilted>0</tilted></feature>
            <threshold>4.1204257868230343e-03</threshold>
            <left_val>0.1185910031199455</left_val>
            <right_val>-0.7150471806526184</right_val></_></_>
        <_>
          <!-- tree 6 -->
          <_>
            <!-- root node -->
            <feature>
              <rects>
                <_>
                  5 7 2 2 -1.</_>
                <_>
                  5 7 1 1 2.</_>
                <_>
                  6 8 1 1 2.</_></rects>
              <tilted>0</tilted></feature>
            <threshold>-2.5362120140925981e-05</threshold>
            <left_node>1</left_node>
            <right_val>-0.4068922102451324</right_val></_>
          <_>
            <!-- node 1 -->
            <feature>
              <rects>
                <_>
                  0 5 18 4 -1.</_>
                <_>
                  0 5 9 2 2.</_>
                <_>
                  9 7 9 2 2.</_></rects>
              <tilted>0</tilted></feature>
            <threshold>-0.0432478599250317</threshold>
            <left_val>-0.7333521246910095</left_val>
            <right_val>0.5131524205207825</right_val></_></_>
        <_>
          <!-- tree 7 -->
          <_>
            <!-- root node -->
            <feature>
              <rects>
                <_>
                  5 3 9 8 -1.</_>
                <_>
                  8 3 3 8 3.</_></rects>
              <tilted>0</tilted></feature>
            <threshold>0.0943100005388260</threshold>
            <left_node>1</left_node>
            <right_val>0.4028250873088837</right_val></_>
          <_>
            <!-- node 1 -->
            <feature>
              <rects>
                <_>
                  8 6 6 9 -1.</_>
                <_>
                  10 6 2 9 3.</_></rects>
              <tilted>0</tilted></feature>
            <threshold>0.0305350404232740</threshold>
            <left_val>-0.2479448020458221</left_val>
            <right_val>0.2982166111469269</right_val></_></_>
        <_>
          <!-- tree 8 -->
          <_>
            <!-- root node -->
            <feature>
              <rects>
                <_>
                  6 12 4 6 -1.</_>
                <_>
                  6 12 2 3 2.</_>
                <_>
                  8 15 2 3 2.</_></rects>
              <tilted>0</tilted></feature>
            <threshold>3.6048400215804577e-03</threshold>
            <left_node>1</left_node>
            <right_val>0.1294699013233185</right_val></_>
          <_>
            <!-- node 1 -->
            <feature>
              <rects>
                <_>
                  1 4 17 12 -1.</_>
                <_>
                  1 7 17 6 2.</_></rects>
              <tilted>0</tilted></feature>
            <threshold>0.4492897987365723</threshold>
            <left_val>-0.6791651844978333</left_val>
            <right_val>0.7680714726448059</right_val></_></_>
        <_>
          <!-- tree 9 -->
          <_>
            <!-- root node -->
            <feature>
              <rects>
                <_>
                  1 1 17 6 -1.</_>
                <_>
                  1 3 17 2 3.</_></rects>
              <tilted>0</tilted></feature>
            <threshold>-0.0647134482860565</threshold>
            <left_node>1</left_node>
            <right_val>-0.5499206185340881</right_val></_>
          <_>
            <!-- node 1 -->
            <feature>
              <rects>
                <_>
                  10 5 3 2 -1.</_>
                <_>
                  11 6 1 2 3.</_></rects>
              <tilted>1</tilted></feature>
            <threshold>-4.1829617694020271e-03</threshold>
            <left_val>-0.8541126251220703</left_val>
            <right_val>0.0241371802985668</right_val></_></_></trees>
      <stage_threshold>-1.9380830526351929</stage_threshold>
      <parent>12</parent>
      <next>-1</next></_>
    <_>
      <!-- stage 16 -->
      <trees>
        <_>
          <!-- tree 0 -->
          <_>
            <!-- root node -->
            <feature>
              <rects>
                <_>
                  5 5 8 2 -1.</_>
                <_>
                  5 6 8 1 2.</_></rects>
              <tilted>0</tilted></feature>
            <threshold>4.6013258397579193e-03</threshold>
            <left_val>-0.9781228899955750</left_val>
            <right_node>1</right_node></_>
          <_>
            <!-- node 1 -->
            <feature>
              <rects>
                <_>
                  9 0 4 8 -1.</_>
                <_>
                  7 2 4 4 2.</_></rects>
              <tilted>1</tilted></feature>
            <threshold>-0.0486913584172726</threshold>
            <left_val>0.8029999732971191</left_val>
            <right_val>-0.9610896110534668</right_val></_></_>
        <_>
          <!-- tree 1 -->
          <_>
            <!-- root node -->
            <feature>
              <rects>
                <_>
                  12 17 6 2 -1.</_>
                <_>
                  15 17 3 1 2.</_>
                <_>
                  12 18 3 1 2.</_></rects>
              <tilted>0</tilted></feature>
            <threshold>2.6699599402491003e-05</threshold>
            <left_node>1</left_node>
            <right_val>0.4654606878757477</right_val></_>
          <_>
            <!-- node 1 -->
            <feature>
              <rects>
                <_>
                  17 15 2 4 -1.</_>
                <_>
                  17 15 1 4 2.</_></rects>
              <tilted>0</tilted></feature>
            <threshold>5.2049861551495269e-05</threshold>
            <left_val>-0.8057175874710083</left_val>
            <right_val>0.3896805047988892</right_val></_></_>
        <_>
          <!-- tree 2 -->
          <_>
            <!-- root node -->
            <feature>
              <rects>
                <_>
                  1 17 6 2 -1.</_>
                <_>
                  1 17 3 1 2.</_>
                <_>
                  4 18 3 1 2.</_></rects>
              <tilted>0</tilted></feature>
            <threshold>1.0838089510798454e-03</threshold>
            <left_node>1</left_node>
            <right_val>0.5478836894035339</right_val></_>
          <_>
            <!-- node 1 -->
            <feature>
              <rects>
                <_>
                  0 15 2 4 -1.</_>
                <_>
                  1 15 1 4 2.</_></rects>
              <tilted>0</tilted></feature>
            <threshold>-0.0117487702518702</threshold>
            <left_val>0.8914803266525269</left_val>
            <right_val>-0.7662013173103333</right_val></_></_>
        <_>
          <!-- tree 3 -->
          <_>
            <!-- root node -->
            <feature>
              <rects>
                <_>
                  4 4 12 4 -1.</_>
                <_>
                  7 4 6 4 2.</_></rects>
              <tilted>0</tilted></feature>
            <threshold>0.0823090374469757</threshold>
            <left_node>1</left_node>
            <right_val>0.1817198991775513</right_val></_>
          <_>
            <!-- node 1 -->
            <feature>
              <rects>
                <_>
                  2 12 15 1 -1.</_>
                <_>
                  7 12 5 1 3.</_></rects>
              <tilted>0</tilted></feature>
            <threshold>-0.0250137094408274</threshold>
            <left_val>0.3348517119884491</left_val>
            <right_val>-0.9833868741989136</right_val></_></_>
        <_>
          <!-- tree 4 -->
          <_>
            <!-- root node -->
            <feature>
              <rects>
                <_>
                  1 4 2 8 -1.</_>
                <_>
                  1 4 1 4 2.</_>
                <_>
                  2 8 1 4 2.</_></rects>
              <tilted>0</tilted></feature>
            <threshold>6.3703977502882481e-04</threshold>
            <left_val>-0.9988852739334106</left_val>
            <right_node>1</right_node></_>
          <_>
            <!-- node 1 -->
            <feature>
              <rects>
                <_>
                  5 1 9 4 -1.</_>
                <_>
                  8 1 3 4 3.</_></rects>
              <tilted>0</tilted></feature>
            <threshold>0.0200881399214268</threshold>
            <left_val>-0.9979462027549744</left_val>
            <right_val>0.7105249166488647</right_val></_></_>
        <_>
          <!-- tree 5 -->
          <_>
            <!-- root node -->
            <feature>
              <rects>
                <_>
                  17 0 2 1 -1.</_>
                <_>
                  17 0 1 1 2.</_></rects>
              <tilted>0</tilted></feature>
            <threshold>0.</threshold>
            <left_val>0.</left_val>
            <right_val>-1.</right_val></_></_>
        <_>
          <!-- tree 6 -->
          <_>
            <!-- root node -->
            <feature>
              <rects>
                <_>
                  3 9 8 3 -1.</_>
                <_>
                  5 9 4 3 2.</_></rects>
              <tilted>0</tilted></feature>
            <threshold>-2.1288239804562181e-04</threshold>
            <left_node>1</left_node>
            <right_val>-0.9977477788925171</right_val></_>
          <_>
            <!-- node 1 -->
            <feature>
              <rects>
                <_>
                  6 8 1 6 -1.</_>
                <_>
                  6 11 1 3 2.</_></rects>
              <tilted>0</tilted></feature>
            <threshold>-0.0171632096171379</threshold>
            <left_val>-1.</left_val>
            <right_val>0.9044914245605469</right_val></_></_>
        <_>
          <!-- tree 7 -->
          <_>
            <!-- root node -->
            <feature>
              <rects>
                <_>
                  7 8 7 4 -1.</_>
                <_>
                  7 9 7 2 2.</_></rects>
              <tilted>0</tilted></feature>
            <threshold>1.3703049626201391e-03</threshold>
            <left_val>-0.9976093769073486</left_val>
            <right_node>1</right_node></_>
          <_>
            <!-- node 1 -->
            <feature>
              <rects>
                <_>
                  13 5 1 2 -1.</_>
                <_>
                  13 5 1 1 2.</_></rects>
              <tilted>1</tilted></feature>
            <threshold>-6.5235112560912967e-04</threshold>
            <left_val>0.5096164941787720</left_val>
            <right_val>-0.9961907863616943</right_val></_></_>
        <_>
          <!-- tree 8 -->
          <_>
            <!-- root node -->
            <feature>
              <rects>
                <_>
                  3 4 2 13 -1.</_>
                <_>
                  4 4 1 13 2.</_></rects>
              <tilted>0</tilted></feature>
            <threshold>-3.2590639311820269e-03</threshold>
            <left_val>0.6676107048988342</left_val>
            <right_node>1</right_node></_>
          <_>
            <!-- node 1 -->
            <feature>
              <rects>
                <_>
                  3 0 3 3 -1.</_>
                <_>
                  3 1 3 1 3.</_></rects>
              <tilted>0</tilted></feature>
            <threshold>0.0104138897731900</threshold>
            <left_val>-0.9783033132553101</left_val>
            <right_val>0.4939055144786835</right_val></_></_></trees>
      <stage_threshold>-1.1471990346908569</stage_threshold>
      <parent>13</parent>
      <next>-1</next></_>
    <_>
      <!-- stage 17 -->
      <trees>
        <_>
          <!-- tree 0 -->
          <_>
            <!-- root node -->
            <feature>
              <rects>
                <_>
                  0 3 19 8 -1.</_>
                <_>
                  0 7 19 4 2.</_></rects>
              <tilted>0</tilted></feature>
            <threshold>0.2496384978294373</threshold>
            <left_val>-0.5927702784538269</left_val>
            <right_node>1</right_node></_>
          <_>
            <!-- node 1 -->
            <feature>
              <rects>
                <_>
                  8 3 2 8 -1.</_>
                <_>
                  9 3 1 8 2.</_></rects>
              <tilted>0</tilted></feature>
            <threshold>8.6708385497331619e-03</threshold>
            <left_val>-0.5198372006416321</left_val>
            <right_val>0.8025779724121094</right_val></_></_>
        <_>
          <!-- tree 1 -->
          <_>
            <!-- root node -->
            <feature>
              <rects>
                <_>
                  10 4 1 4 -1.</_>
                <_>
                  9 5 1 2 2.</_></rects>
              <tilted>1</tilted></feature>
            <threshold>-1.0381300235167146e-03</threshold>
            <left_val>0.1660373955965042</left_val>
            <right_node>1</right_node></_>
          <_>
            <!-- node 1 -->
            <feature>
              <rects>
                <_>
                  2 0 15 3 -1.</_>
                <_>
                  2 1 15 1 3.</_></rects>
              <tilted>0</tilted></feature>
            <threshold>0.0428111515939236</threshold>
            <left_val>-0.2605342864990234</left_val>
            <right_val>0.6313976049423218</right_val></_></_>
        <_>
          <!-- tree 2 -->
          <_>
            <!-- root node -->
            <feature>
              <rects>
                <_>
                  3 1 12 6 -1.</_>
                <_>
                  6 1 6 6 2.</_></rects>
              <tilted>0</tilted></feature>
            <threshold>0.0584613718092442</threshold>
            <left_val>-0.5013095736503601</left_val>
            <right_node>1</right_node></_>
          <_>
            <!-- node 1 -->
            <feature>
              <rects>
                <_>
                  4 6 8 4 -1.</_>
                <_>
                  4 6 4 4 2.</_></rects>
              <tilted>1</tilted></feature>
            <threshold>0.0534268096089363</threshold>
            <left_val>-0.4538457095623016</left_val>
            <right_val>0.6261851191520691</right_val></_></_>
        <_>
          <!-- tree 3 -->
          <_>
            <!-- root node -->
            <feature>
              <rects>
                <_>
                  10 4 1 4 -1.</_>
                <_>
                  9 5 1 2 2.</_></rects>
              <tilted>1</tilted></feature>
            <threshold>-3.2808650285005569e-03</threshold>
            <left_val>0.1366243958473206</left_val>
            <right_node>1</right_node></_>
          <_>
            <!-- node 1 -->
            <feature>
              <rects>
                <_>
                  9 7 1 2 -1.</_>
                <_>
                  9 8 1 1 2.</_></rects>
              <tilted>0</tilted></feature>
            <threshold>-4.3355519301258028e-04</threshold>
            <left_val>-0.7410476803779602</left_val>
            <right_val>0.1475525051355362</right_val></_></_>
        <_>
          <!-- tree 4 -->
          <_>
            <!-- root node -->
            <feature>
              <rects>
                <_>
                  4 1 6 6 -1.</_>
                <_>
                  4 3 6 2 3.</_></rects>
              <tilted>0</tilted></feature>
            <threshold>-0.0260317195206881</threshold>
            <left_node>1</left_node>
            <right_val>-0.5453603267669678</right_val></_>
          <_>
            <!-- node 1 -->
            <feature>
              <rects>
                <_>
                  8 6 6 1 -1.</_>
                <_>
                  10 8 2 1 3.</_></rects>
              <tilted>1</tilted></feature>
            <threshold>0.0156328100711107</threshold>
            <left_val>-0.3618200123310089</left_val>
            <right_val>0.5250740051269531</right_val></_></_>
        <_>
          <!-- tree 5 -->
          <_>
            <!-- root node -->
            <feature>
              <rects>
                <_>
                  9 5 1 3 -1.</_>
                <_>
                  9 6 1 1 3.</_></rects>
              <tilted>0</tilted></feature>
            <threshold>-1.3156339991837740e-03</threshold>
            <left_val>-0.8036286234855652</left_val>
            <right_node>1</right_node></_>
          <_>
            <!-- node 1 -->
            <feature>
              <rects>
                <_>
                  9 5 1 3 -1.</_>
                <_>
                  9 6 1 1 3.</_></rects>
              <tilted>0</tilted></feature>
            <threshold>-1.3156339991837740e-03</threshold>
            <left_val>-0.8036286234855652</left_val>
            <right_val>0.1816212981939316</right_val></_></_>
        <_>
          <!-- tree 6 -->
          <_>
            <!-- root node -->
            <feature>
              <rects>
                <_>
                  0 2 2 16 -1.</_>
                <_>
                  1 2 1 16 2.</_></rects>
              <tilted>0</tilted></feature>
            <threshold>0.0217525605112314</threshold>
            <left_node>1</left_node>
            <right_val>0.5957763791084290</right_val></_>
          <_>
            <!-- node 1 -->
            <feature>
              <rects>
                <_>
                  0 1 3 18 -1.</_>
                <_>
                  1 1 1 18 3.</_></rects>
              <tilted>0</tilted></feature>
            <threshold>-0.0246235597878695</threshold>
            <left_val>0.4892568886280060</left_val>
            <right_val>-0.5328919291496277</right_val></_></_>
        <_>
          <!-- tree 7 -->
          <_>
            <!-- root node -->
            <feature>
              <rects>
                <_>
                  10 9 3 1 -1.</_>
                <_>
                  11 9 1 1 3.</_></rects>
              <tilted>0</tilted></feature>
            <threshold>-3.7396070547401905e-03</threshold>
            <left_node>1</left_node>
            <right_val>0.0622383803129196</right_val></_>
          <_>
            <!-- node 1 -->
            <feature>
              <rects>
                <_>
                  10 6 3 1 -1.</_>
                <_>
                  11 7 1 1 3.</_></rects>
              <tilted>1</tilted></feature>
            <threshold>9.6888851840049028e-04</threshold>
            <left_val>-0.5558934211730957</left_val>
